<?xml version="1.0"?>
<opencv_storage>
<myhaar type_id="opencv-haar-classifier">
  <size>
    24 24</size>
  <stages>
    <_>
      <trees>
        <_>
          <_>
            <feature>
              <rects>
                <_>
                  0 0 14 6 -1.</_>
                <_>
                  0 3 14 3 2.</_></rects>
              <tilted>0</tilted></feature>
            <threshold>8.1713469699025154e-003</threshold>
            <left_val>-1.</left_val>
            <right_val>1.</right_val></_></_></trees>
      <stage_threshold>1.</stage_threshold>
      <parent>-1</parent>
      <next>-1</next></_>
    <_>
      <trees>
        <_>
          <_>
            <feature>
              <rects>
                <_>
                  0 7 15 3 -1.</_>
                <_>
                  5 8 5 1 9.</_></rects>
              <tilted>0</tilted></feature>
            <threshold>0.0309553891420364</threshold>
            <left_val>-1.</left_val>
            <right_val>1.</right_val></_></_></trees>
      <stage_threshold>1.</stage_threshold>
      <parent>0</parent>
      <next>-1</next></_>
    <_>
      <trees>
        <_>
          <_>
            <feature>
              <rects>
                <_>
                  1 0 6 1 -1.</_>
                <_>
                  3 0 2 1 3.</_></rects>
              <tilted>0</tilted></feature>
            <threshold>-1.5789680182933807e-003</threshold>
            <left_val>-1.</left_val>
            <right_val>1.</right_val></_></_></trees>
      <stage_threshold>1.</stage_threshold>
      <parent>1</parent>
      <next>-1</next></_>
    <_>
      <trees>
        <_>
          <_>
            <feature>
              <rects>
                <_>
                  0 2 24 16 -1.</_>
                <_>
                  0 2 12 8 2.</_>
                <_>
                  12 10 12 8 2.</_></rects>
              <tilted>0</tilted></feature>
            <threshold>-8.7106358259916306e-003</threshold>
            <left_val>-1.</left_val>
            <right_val>1.</right_val></_></_></trees>
      <stage_threshold>1.</stage_threshold>
      <parent>2</parent>
      <next>-1</next></_>
    <_>
      <trees>
        <_>
          <_>
            <feature>
              <rects>
                <_>
                  1 0 17 24 -1.</_>
                <_>
                  1 6 17 12 2.</_></rects>
              <tilted>0</tilted></feature>
            <threshold>0.0419342108070850</threshold>
            <left_val>-1.</left_val>
            <right_val>1.</right_val></_></_></trees>
      <stage_threshold>1.</stage_threshold>
      <parent>3</parent>
      <next>-1</next></_>
    <_>
      <trees>
        <_>
          <_>
            <feature>
              <rects>
                <_>
                  0 0 12 2 -1.</_>
                <_>
                  3 0 6 2 2.</_></rects>
              <tilted>0</tilted></feature>
            <threshold>5.4363789968192577e-003</threshold>
            <left_val>-1.</left_val>
            <right_val>1.</right_val></_></_></trees>
      <stage_threshold>1.</stage_threshold>
      <parent>4</parent>
      <next>-1</next></_>
    <_>
      <trees>
        <_>
          <_>
            <feature>
              <rects>
                <_>
                  4 2 10 2 -1.</_>
                <_>
                  4 2 5 1 2.</_>
                <_>
                  9 3 5 1 2.</_></rects>
              <tilted>0</tilted></feature>
            <threshold>3.8738150615245104e-003</threshold>
            <left_val>-1.</left_val>
            <right_val>1.</right_val></_></_></trees>
      <stage_threshold>1.</stage_threshold>
      <parent>5</parent>
      <next>-1</next></_>
    <_>
      <trees>
        <_>
          <_>
            <feature>
              <rects>
                <_>
                  0 0 4 10 -1.</_>
                <_>
                  0 0 2 5 2.</_>
                <_>
                  2 5 2 5 2.</_></rects>
              <tilted>0</tilted></feature>
            <threshold>1.1604130122577772e-004</threshold>
            <left_val>-1.</left_val>
            <right_val>1.</right_val></_></_>
        <_>
          <_>
            <feature>
              <rects>
                <_>
                  22 0 2 16 -1.</_>
                <_>
                  23 0 1 8 2.</_>
                <_>
                  22 8 1 8 2.</_></rects>
              <tilted>0</tilted></feature>
            <threshold>8.4531791799236089e-005</threshold>
            <left_val>-0.8601428270339966</left_val>
            <right_val>1.</right_val></_></_>
        <_>
          <_>
            <feature>
              <rects>
                <_>
                  0 0 2 2 -1.</_>
                <_>
                  0 0 1 1 2.</_>
                <_>
                  1 1 1 1 2.</_></rects>
              <tilted>0</tilted></feature>
            <threshold>-1.1743410141207278e-004</threshold>
            <left_val>1.</left_val>
            <right_val>-1.</right_val></_></_>
        <_>
          <_>
            <feature>
              <rects>
                <_>
                  21 0 3 3 -1.</_>
                <_>
                  22 1 1 1 9.</_></rects>
              <tilted>0</tilted></feature>
            <threshold>5.9172249166294932e-004</threshold>
            <left_val>-0.9275379180908203</left_val>
            <right_val>1.</right_val></_></_>
        <_>
          <_>
            <feature>
              <rects>
                <_>
                  0 0 2 1 -1.</_>
                <_>
                  1 0 1 1 2.</_></rects>
              <tilted>0</tilted></feature>
            <threshold>0.</threshold>
            <left_val>0.</left_val>
            <right_val>-1.</right_val></_></_>
        <_>
          <_>
            <feature>
              <rects>
                <_>
                  23 0 1 2 -1.</_>
                <_>
                  23 1 1 1 2.</_></rects>
              <tilted>0</tilted></feature>
            <threshold>-8.4531791799236089e-005</threshold>
            <left_val>1.</left_val>
            <right_val>-1.</right_val></_></_></trees>
      <stage_threshold>0.0724622607231140</stage_threshold>
      <parent>6</parent>
      <next>-1</next></_>
    <_>
      <trees>
        <_>
          <_>
            <feature>
              <rects>
                <_>
                  8 10 2 2 -1.</_>
                <_>
                  8 10 1 2 2.</_></rects>
              <tilted>1</tilted></feature>
            <threshold>3.4476621076464653e-003</threshold>
            <left_val>-1.</left_val>
            <right_val>1.</right_val></_></_></trees>
      <stage_threshold>1.</stage_threshold>
      <parent>7</parent>
      <next>-1</next></_>
    <_>
      <trees>
        <_>
          <_>
            <feature>
              <rects>
                <_>
                  1 12 12 1 -1.</_>
                <_>
                  7 12 6 1 2.</_></rects>
              <tilted>0</tilted></feature>
            <threshold>1.9235450308769941e-003</threshold>
            <left_val>-1.</left_val>
            <right_val>1.</right_val></_></_></trees>
      <stage_threshold>1.</stage_threshold>
      <parent>8</parent>
      <next>-1</next></_></stages></myhaar>
</opencv_storage>
